<?xml version="1.0"?>
<opencv_storage>
<my_svm type_id="opencv-ml-svm">
  <svm_type>C_SVC</svm_type>
  <kernel><type>LINEAR</type></kernel>
  <C>1.</C>
  <term_criteria><epsilon>2.2204460492503131e-016</epsilon>
    <iterations>100</iterations></term_criteria>
  <var_all>512</var_all>
  <var_count>512</var_count>
  <class_count>2</class_count>
  <class_labels type_id="opencv-matrix">
    <rows>1</rows>
    <cols>2</cols>
    <dt>i</dt>
    <data>
      -1 1</data></class_labels>
  <sv_total>1</sv_total>
  <support_vectors>
    <_>
      -4.67380596e-005 -1.12908647e-005 -6.49162848e-006 9.24639426e-006
      -1.06022708e-005 -2.01296498e-005 -1.71111260e-005
      -7.50542313e-006 -2.15507953e-006 1.07808364e-006 3.34144534e-006
      -2.23064353e-006 -4.60086312e-006 -2.78679840e-006
      -4.81673283e-007 -2.63797034e-007 -4.17014780e-005 2.96811177e-005
      1.77183829e-005 -4.38499774e-005 4.04075217e-005 -5.05554526e-005
      -9.80350669e-005 -5.25669529e-005 -6.13941447e-005
      -6.98960889e-007 -3.91572530e-006 -5.94544690e-006
      -7.07962226e-006 -5.54644384e-006 -4.90957473e-006
      -2.48914444e-006 -1.09758025e-006 5.09806450e-005 3.61170532e-005
      4.42803781e-007 8.12246071e-007 -2.81532903e-005 7.66635276e-006
      5.27161501e-005 2.58352029e-005 -1.47719311e-005 -2.05086235e-005
      -3.34233446e-005 -6.97835785e-005 -8.57759551e-006
      -1.43818042e-005 -3.40929523e-006 -2.16745207e-006 2.40052796e-005
      1.17959544e-005 2.27448509e-005 6.10939824e-005 5.24895004e-005
      1.45106183e-004 1.43793834e-004 2.63577003e-005 -2.28763893e-005
      -2.41705329e-005 -7.42869133e-006 -2.54770293e-006
      -1.24966641e-006 -9.39546908e-007 -6.48599098e-007 1.44578635e-005
      2.67413707e-005 9.79085871e-006 4.38801362e-005 3.29867798e-005
      1.46221037e-005 1.40976408e-005 3.67645356e-007 3.93521162e-007
      -4.89181843e-007 -7.25634038e-007 -3.23489395e-008
      -3.01409870e-007 -5.34968478e-007 -6.79437051e-007
      -2.43350456e-007 8.22665534e-005 1.87572605e-005 8.66585397e-005
      9.22106119e-005 3.85370768e-005 8.62374418e-006 3.49538345e-006
      9.96548351e-007 -7.23158564e-007 -4.74622794e-007 -8.33949116e-007
      -8.11660527e-007 -7.78989147e-007 -4.87371096e-007
      -2.79216010e-007 -1.57540796e-007 6.90353845e-005 6.26465771e-005
      1.57671500e-004 1.09471177e-004 7.58397509e-005 7.44390272e-005
      7.86265664e-005 1.15422263e-005 7.60127841e-006 -8.88414718e-007
      -1.33153367e-006 -9.78631192e-007 -1.00323348e-006
      -6.72732881e-007 -6.96196423e-007 -2.32288883e-007 4.37958188e-005
      4.68471262e-005 1.07716529e-004 1.45311069e-005 1.12857721e-004
      7.23555204e-005 9.95458031e-005 7.94663356e-005 4.83148833e-005
      1.02820195e-005 -9.37309323e-007 -2.12774125e-006 -1.42624776e-006
      -1.44669434e-006 -6.83124199e-007 -4.04578429e-007 5.35390718e-005
      5.89553129e-005 8.47935589e-005 1.25143299e-006 5.71425335e-005
      -7.10685854e-005 -3.62012797e-005 -4.72749070e-006 3.40551815e-005
      3.03488341e-005 1.19728766e-005 -4.08056167e-006 -6.73339173e-006
      -4.82008181e-006 -3.30366697e-006 -2.18512650e-006 1.48408881e-005
      9.47110893e-005 4.85461351e-005 -1.22194106e-004 -2.65111681e-004
      -2.33599931e-004 -1.80482661e-004 -8.76096237e-005
      -3.49223083e-005 -2.48339857e-005 -1.97730496e-005
      -2.01375296e-005 -1.56553633e-005 -1.19673041e-005
      -7.36420179e-006 -4.33841069e-006 1.08397162e-005 1.30482090e-006
      -3.64748012e-005 -2.08004247e-004 -2.28750432e-004
      -1.83444907e-004 -1.03251768e-004 -3.95398893e-005
      -1.73313092e-005 -5.62616651e-006 9.52582286e-006 -1.80711377e-005
      -1.57400100e-005 -1.01503265e-005 -7.00788905e-006
      -4.89717650e-006 1.69201267e-005 -4.80515810e-005 -2.58717810e-005
      -1.95158587e-004 -2.07246921e-004 -1.49586820e-004
      -7.13304762e-005 -1.45341019e-005 -8.60661476e-006
      -9.72229100e-006 -1.18275966e-005 -1.97792888e-005
      -1.43553243e-005 -9.45781539e-006 -6.26409337e-006
      -2.91249489e-006 1.82310196e-005 -4.21827935e-005 2.42157439e-005
      -9.06387431e-005 -1.36548319e-004 -8.06752141e-005
      -2.86282120e-005 7.28917144e-007 -1.00773059e-006 -2.78188168e-006
      -2.98992381e-006 -3.49204379e-006 -2.87495277e-006
      -2.08423194e-006 -1.31630429e-006 -6.28822704e-007 7.31459368e-005
      -9.16405781e-007 -8.13891711e-006 -1.22860547e-005
      -5.09138408e-005 -2.18157438e-005 -2.92495497e-006 1.47800108e-007
      -2.19886886e-007 -2.00110506e-007 -2.30948444e-007
      -3.42232340e-007 -2.31618671e-007 -2.71171416e-007
      -1.09943443e-007 -9.82116646e-008 -5.09686397e-005
      -4.64519180e-005 2.10605594e-005 3.24355024e-005 -1.12128851e-006
      -4.02794240e-006 -2.46210561e-007 -1.70457028e-007
      -3.18098557e-007 -1.72959759e-007 -1.45138785e-007
      -5.86589088e-008 -3.51953453e-008 -7.03906906e-008
      -1.17317818e-008 -2.34635635e-008 5.10458563e-007 -1.10262054e-005
      1.59249794e-005 2.02295196e-005 2.99842632e-005 8.39076904e-007
      6.13101676e-008 -7.47481010e-008 -1.37764417e-007 -5.49717214e-008
      -3.51953453e-008 -5.49717214e-008 -4.32399396e-008 0.
      -2.34635635e-008 -3.51953453e-008 7.78195408e-006 8.37564130e-006
      -1.92737934e-005 3.22610686e-005 4.46377016e-005 9.46505679e-007
      -3.87720931e-008 -3.67550570e-007 -3.81785071e-007
      -1.17317818e-008 -1.49496202e-007 -1.61227973e-007
      -1.17317818e-008 -4.32399396e-008 -7.47481010e-008 0.
      1.19117060e-004 7.76792367e-005 6.27237314e-005 5.45223229e-005
      1.93541600e-005 5.30201305e-007 1.30549822e-007 1.07747792e-006
      1.76161819e-007 -2.24244289e-007 -2.32288883e-007 -9.45244736e-008
      -3.15081579e-008 -4.32399396e-008 -2.34635635e-008 0.
      1.40924909e-004 1.47031169e-005 9.16863282e-005 7.75600711e-005
      1.94009062e-005 3.47175705e-006 -2.99525755e-006 1.22025531e-005
      2.28201243e-005 5.56442683e-005 1.52396715e-005 8.56013344e-007
      -5.86589088e-008 -9.45244736e-008 0. 0. 7.94429361e-005
      -5.17229091e-005 5.14193307e-005 1.00566664e-004 4.23995989e-005
      9.77706895e-006 -9.73920851e-006 -5.13077566e-006 -3.90798874e-007
      1.52718928e-006 5.77715855e-006 -2.16249575e-007 -1.29719822e-007
      -4.32399396e-008 0. 0. 2.48999531e-005 1.07551576e-004
      1.01562313e-004 1.07828360e-004 2.91401534e-007 -5.67523130e-005
      -4.47969142e-005 -2.84964408e-005 -1.21267331e-005
      -1.20127038e-006 -8.58430724e-007 -2.74858621e-007
      -7.47481010e-008 -3.15081579e-008 0. 0. 9.09848895e-005
      1.54077061e-004 1.00589670e-004 7.68147365e-005 -6.89796889e-006
      -1.02064280e-006 1.71043121e-006 5.26565464e-006 -8.09163225e-008
      -6.67034996e-008 -3.15081579e-008 0. -3.15081579e-008 0.
      -1.17317818e-008 0. 1.24142985e-004 -4.39158466e-005
      7.22998520e-005 -6.72885153e-006 -1.79588676e-006 8.77462796e-008
      3.42212303e-007 7.76091440e-008 -1.17317818e-008 -6.30163157e-008
      0. 0. 0. 0. 0. 0. -5.60202243e-005 -5.37275919e-005
      -6.68874927e-005 -1.58894436e-005 -9.03281307e-006
      -2.98188206e-006 -1.11741393e-007 -3.15081579e-008 0. 0. 0. 0. 0.
      0. 0. 0. 3.76588869e-005 -1.04756342e-004 -9.56017102e-005
      -5.46460287e-005 -2.31841441e-005 -4.69783299e-006
      -1.09089314e-007 -4.32399396e-008 0. -3.15081579e-008 0. 0. 0. 0.
      0. 0. 3.93799892e-005 -1.08840439e-004 -6.52436138e-005
      -1.42789004e-005 -3.57247382e-006 -6.22636591e-008
      -4.32399396e-008 0. 0. 0. 0. 0. 0. 0. 0. 0. 9.37174264e-006
      -5.63828908e-005 -2.03221043e-005 5.83853819e-007 7.18346769e-008
      -3.15081579e-008 -3.15081579e-008 0. 0. 0. 0. 0. 0. 0. 0. 0.
      4.87639336e-005 -7.06398350e-005 1.11738946e-005 6.56519751e-006
      4.23196525e-007 -9.45244736e-008 -6.30163157e-008 0.
      -3.15081579e-008 0. 0. 0. 0. 0. 0. 0. 2.22165563e-005
      -6.17656988e-005 2.28450299e-005 1.09967032e-005 9.68218842e-007
      -1.30448385e-007 -3.15081579e-008 -3.15081579e-008
      -2.50347156e-008 -3.15081579e-008 0. 0. 0. 0. 0. 0.
      -3.57210738e-005 -2.02967876e-005 1.47899591e-005 6.30721070e-006
      2.42319572e-007 -1.45447927e-007 8.58728555e-008 3.46528651e-007
      6.15836086e-007 0. 0. 0. 0. 0. 0. 0. -2.51437104e-005
      -9.96894669e-005 7.52170536e-006 4.47778484e-006 -1.09933512e-006
      -2.94521033e-006 -4.01172065e-006 -3.83098359e-006
      -6.82383006e-006 -4.05518222e-006 0. 0. 0. 0. 0. 0.
      2.39161491e-005 -9.34539912e-006 6.49469939e-007 -2.26441398e-006
      -4.28723524e-006 -4.22859830e-006 -5.87178056e-006
      -9.00964278e-006 -1.35768605e-005 -1.86201032e-005
      -6.10325196e-006 8.64008484e-007 -1.37094190e-007 -2.34635635e-008
      0. 0.</_></support_vectors>
  <decision_functions>
    <_>
      <sv_count>1</sv_count>
      <rho>2.9153151520293125e-001</rho>
      <alpha>
        1.</alpha>
      <index>
        0</index></_></decision_functions></my_svm>
</opencv_storage>
